digraph Tree {
node [shape=box, style="filled, rounded", color="black", fontname=helvetica] ;
edge [fontname=helvetica] ;
0 [label="SIGNUP_GOOGLE_AUTH <= 0.5\ngini = 0.218\nsamples = 5317\nvalue = [7353, 1047]", fillcolor="#e99355"] ;
1 [label="gini = 0.212\nsamples = 4725\nvalue = [6557, 900]", fillcolor="#e99254"] ;
0 -> 1 [labeldistance=2.5, labelangle=45, headlabel="True"] ;
2 [label="gini = 0.263\nsamples = 592\nvalue = [796, 147]", fillcolor="#ea985e"] ;
0 -> 2 [labeldistance=2.5, labelangle=-45, headlabel="False"] ;
}